<?xml version="1.0"?>
<opencv_storage>
<cascade>
  <stageType>BOOST</stageType>
  <featureType>HAAR</featureType>
  <height>50</height>
  <width>35</width>
  <stageParams>
    <boostType>GAB</boostType>
    <minHitRate>9.9500000476837158e-01</minHitRate>
    <maxFalseAlarm>5.0000000000000000e-01</maxFalseAlarm>
    <weightTrimRate>9.4999998807907104e-01</weightTrimRate>
    <maxDepth>1</maxDepth>
    <maxWeakCount>100</maxWeakCount></stageParams>
  <featureParams>
    <maxCatCount>0</maxCatCount>
    <featSize>1</featSize>
    <mode>BASIC</mode></featureParams>
  <stageNum>6</stageNum>
  <stages>
    <!-- stage 0 -->
    <_>
      <maxWeakCount>1</maxWeakCount>
      <stageThreshold>9.8058253526687622e-01</stageThreshold>
      <weakClassifiers>
        <_>
          <internalNodes>
            0 -1 4 1.1999586969614029e-01</internalNodes>
          <leafValues>
            -1. 9.8058253526687622e-01</leafValues></_></weakClassifiers></_>
    <!-- stage 1 -->
    <_>
      <maxWeakCount>2</maxWeakCount>
      <stageThreshold>-6.5445020794868469e-02</stageThreshold>
      <weakClassifiers>
        <_>
          <internalNodes>
            0 -1 0 7.0719979703426361e-02</internalNodes>
          <leafValues>
            -9.9500000476837158e-01 9.4230771064758301e-01</leafValues></_>
        <_>
          <internalNodes>
            0 -1 5 2.9704187065362930e-02</internalNodes>
          <leafValues>
            -9.7992354631423950e-01 9.2955499887466431e-01</leafValues></_></weakClassifiers></_>
    <!-- stage 2 -->
    <_>
      <maxWeakCount>2</maxWeakCount>
      <stageThreshold>-2.9257616400718689e-01</stageThreshold>
      <weakClassifiers>
        <_>
          <internalNodes>
            0 -1 6 -1.4488417655229568e-02</internalNodes>
          <leafValues>
            6.6101694107055664e-01 -9.7927463054656982e-01</leafValues></_>
        <_>
          <internalNodes>
            0 -1 7 1.0475972667336464e-02</internalNodes>
          <leafValues>
            -9.5359313488006592e-01 7.4567425251007080e-01</leafValues></_></weakClassifiers></_>
    <!-- stage 3 -->
    <_>
      <maxWeakCount>2</maxWeakCount>
      <stageThreshold>-4.0184384584426880e-01</stageThreshold>
      <weakClassifiers>
        <_>
          <internalNodes>
            0 -1 2 1.3193425536155701e-01</internalNodes>
          <leafValues>
            -9.7354495525360107e-01 5.3968256711959839e-01</leafValues></_>
        <_>
          <internalNodes>
            0 -1 10 1.8179614562541246e-03</internalNodes>
          <leafValues>
            -9.4152641296386719e-01 5.9380185604095459e-01</leafValues></_></weakClassifiers></_>
    <!-- stage 4 -->
    <_>
      <maxWeakCount>2</maxWeakCount>
      <stageThreshold>-5.9407299757003784e-01</stageThreshold>
      <weakClassifiers>
        <_>
          <internalNodes>
            0 -1 1 -4.3109513819217682e-02</internalNodes>
          <leafValues>
            3.6986300349235535e-01 -9.8882681131362915e-01</leafValues></_>
        <_>
          <internalNodes>
            0 -1 9 4.0786270052194595e-02</internalNodes>
          <leafValues>
            -9.5198571681976318e-01 3.9475378394126892e-01</leafValues></_></weakClassifiers></_>
    <!-- stage 5 -->
    <_>
      <maxWeakCount>2</maxWeakCount>
      <stageThreshold>-4.6215313673019409e-01</stageThreshold>
      <weakClassifiers>
        <_>
          <internalNodes>
            0 -1 3 2.5667050853371620e-02</internalNodes>
          <leafValues>
            -9.7275203466415405e-01 4.1605839133262634e-01</leafValues></_>
        <_>
          <internalNodes>
            0 -1 8 -2.2364513948559761e-02</internalNodes>
          <leafValues>
            6.3928902149200439e-01 -8.7821149826049805e-01</leafValues></_></weakClassifiers></_></stages>
  <features>
    <_>
      <rects>
        <_>
          2 14 13 14 -1.</_>
        <_>
          2 21 13 7 2.</_></rects>
      <tilted>0</tilted></_>
    <_>
      <rects>
        <_>
          2 23 30 5 -1.</_>
        <_>
          17 23 15 5 2.</_></rects>
      <tilted>0</tilted></_>
    <_>
      <rects>
        <_>
          3 14 22 21 -1.</_>
        <_>
          3 21 22 7 3.</_></rects>
      <tilted>0</tilted></_>
    <_>
      <rects>
        <_>
          6 0 2 42 -1.</_>
        <_>
          6 21 2 21 2.</_></rects>
      <tilted>0</tilted></_>
    <_>
      <rects>
        <_>
          8 14 24 14 -1.</_>
        <_>
          16 14 8 14 3.</_></rects>
      <tilted>0</tilted></_>
    <_>
      <rects>
        <_>
          9 34 18 10 -1.</_>
        <_>
          9 34 9 5 2.</_>
        <_>
          18 39 9 5 2.</_></rects>
      <tilted>0</tilted></_>
    <_>
      <rects>
        <_>
          12 39 22 8 -1.</_>
        <_>
          12 39 11 4 2.</_>
        <_>
          23 43 11 4 2.</_></rects>
      <tilted>0</tilted></_>
    <_>
      <rects>
        <_>
          17 6 10 14 -1.</_>
        <_>
          17 6 5 7 2.</_>
        <_>
          22 13 5 7 2.</_></rects>
      <tilted>0</tilted></_>
    <_>
      <rects>
        <_>
          23 5 10 10 -1.</_>
        <_>
          23 5 5 5 2.</_>
        <_>
          28 10 5 5 2.</_></rects>
      <tilted>0</tilted></_>
    <_>
      <rects>
        <_>
          23 29 11 12 -1.</_>
        <_>
          23 35 11 6 2.</_></rects>
      <tilted>0</tilted></_>
    <_>
      <rects>
        <_>
          31 6 2 10 -1.</_>
        <_>
          32 6 1 10 2.</_></rects>
      <tilted>0</tilted></_></features></cascade>
</opencv_storage>
